digraph Tree {
node [shape=box] ;
0 [label="Sex <= 0.5\nentropy = 0.961\nsamples = 891\nvalue = [549, 342]"] ;
1 [label="Pclass <= 2.5\nentropy = 0.824\nsamples = 314\nvalue = [81, 233]"] ;
0 -> 1 [labeldistance=2.5, labelangle=45, headlabel="True"] ;
2 [label="Age <= 2.5\nentropy = 0.299\nsamples = 170\nvalue = [9, 161]"] ;
1 -> 2 ;
3 [label="Parch <= 1.5\nentropy = 1.0\nsamples = 2\nvalue = [1, 1]"] ;
2 -> 3 ;
4 [label="entropy = 0.0\nsamples = 1\nvalue = [0, 1]"] ;
3 -> 4 ;
5 [label="entropy = 0.0\nsamples = 1\nvalue = [1, 0]"] ;
3 -> 5 ;
6 [label="Age <= 23.5\nentropy = 0.276\nsamples = 168\nvalue = [8, 160]"] ;
2 -> 6 ;
7 [label="entropy = 0.0\nsamples = 40\nvalue = [0, 40]"] ;
6 -> 7 ;
8 [label="Age <= 27.5\nentropy = 0.337\nsamples = 128\nvalue = [8, 120]"] ;
6 -> 8 ;
9 [label="Age <= 24.5\nentropy = 0.722\nsamples = 20\nvalue = [4, 16]"] ;
8 -> 9 ;
10 [label="SibSp <= 0.5\nentropy = 0.414\nsamples = 12\nvalue = [1, 11]"] ;
9 -> 10 ;
11 [label="Pclass <= 1.5\nentropy = 0.592\nsamples = 7\nvalue = [1, 6]"] ;
10 -> 11 ;
12 [label="entropy = 0.0\nsamples = 4\nvalue = [0, 4]"] ;
11 -> 12 ;
13 [label="Parch <= 1.0\nentropy = 0.918\nsamples = 3\nvalue = [1, 2]"] ;
11 -> 13 ;
14 [label="entropy = 1.0\nsamples = 2\nvalue = [1, 1]"] ;
13 -> 14 ;
15 [label="entropy = 0.0\nsamples = 1\nvalue = [0, 1]"] ;
13 -> 15 ;
16 [label="entropy = 0.0\nsamples = 5\nvalue = [0, 5]"] ;
10 -> 16 ;
17 [label="SibSp <= 0.5\nentropy = 0.954\nsamples = 8\nvalue = [3, 5]"] ;
9 -> 17 ;
18 [label="entropy = 0.0\nsamples = 3\nvalue = [0, 3]"] ;
17 -> 18 ;
19 [label="Parch <= 1.5\nentropy = 0.971\nsamples = 5\nvalue = [3, 2]"] ;
17 -> 19 ;
20 [label="Age <= 25.5\nentropy = 1.0\nsamples = 4\nvalue = [2, 2]"] ;
19 -> 20 ;
21 [label="entropy = 0.0\nsamples = 1\nvalue = [0, 1]"] ;
20 -> 21 ;
22 [label="Age <= 26.5\nentropy = 0.918\nsamples = 3\nvalue = [2, 1]"] ;
20 -> 22 ;
23 [label="entropy = 0.0\nsamples = 1\nvalue = [1, 0]"] ;
22 -> 23 ;
24 [label="entropy = 1.0\nsamples = 2\nvalue = [1, 1]"] ;
22 -> 24 ;
25 [label="entropy = 0.0\nsamples = 1\nvalue = [1, 0]"] ;
19 -> 25 ;
26 [label="Age <= 37.0\nentropy = 0.229\nsamples = 108\nvalue = [4, 104]"] ;
8 -> 26 ;
27 [label="entropy = 0.0\nsamples = 56\nvalue = [0, 56]"] ;
26 -> 27 ;
28 [label="Parch <= 0.5\nentropy = 0.391\nsamples = 52\nvalue = [4, 48]"] ;
26 -> 28 ;
29 [label="Pclass <= 1.5\nentropy = 0.523\nsamples = 34\nvalue = [4, 30]"] ;
28 -> 29 ;
30 [label="Age <= 49.5\nentropy = 0.258\nsamples = 23\nvalue = [1, 22]"] ;
29 -> 30 ;
31 [label="entropy = 0.0\nsamples = 12\nvalue = [0, 12]"] ;
30 -> 31 ;
32 [label="Age <= 50.5\nentropy = 0.439\nsamples = 11\nvalue = [1, 10]"] ;
30 -> 32 ;
33 [label="entropy = 0.0\nsamples = 1\nvalue = [1, 0]"] ;
32 -> 33 ;
34 [label="entropy = 0.0\nsamples = 10\nvalue = [0, 10]"] ;
32 -> 34 ;
35 [label="Age <= 39.0\nentropy = 0.845\nsamples = 11\nvalue = [3, 8]"] ;
29 -> 35 ;
36 [label="entropy = 0.0\nsamples = 1\nvalue = [1, 0]"] ;
35 -> 36 ;
37 [label="Age <= 56.0\nentropy = 0.722\nsamples = 10\nvalue = [2, 8]"] ;
35 -> 37 ;
38 [label="SibSp <= 0.5\nentropy = 0.503\nsamples = 9\nvalue = [1, 8]"] ;
37 -> 38 ;
39 [label="entropy = 0.0\nsamples = 7\nvalue = [0, 7]"] ;
38 -> 39 ;
40 [label="Age <= 43.0\nentropy = 1.0\nsamples = 2\nvalue = [1, 1]"] ;
38 -> 40 ;
41 [label="entropy = 0.0\nsamples = 1\nvalue = [0, 1]"] ;
40 -> 41 ;
42 [label="entropy = 0.0\nsamples = 1\nvalue = [1, 0]"] ;
40 -> 42 ;
43 [label="entropy = 0.0\nsamples = 1\nvalue = [1, 0]"] ;
37 -> 43 ;
44 [label="entropy = 0.0\nsamples = 18\nvalue = [0, 18]"] ;
28 -> 44 ;
45 [label="Age <= 38.5\nentropy = 1.0\nsamples = 144\nvalue = [72, 72]"] ;
1 -> 45 ;
46 [label="SibSp <= 2.5\nentropy = 0.996\nsamples = 132\nvalue = [61, 71]"] ;
45 -> 46 ;
47 [label="Age <= 7.0\nentropy = 0.973\nsamples = 114\nvalue = [46, 68]"] ;
46 -> 47 ;
48 [label="SibSp <= 0.5\nentropy = 0.439\nsamples = 11\nvalue = [1, 10]"] ;
47 -> 48 ;
49 [label="Age <= 3.0\nentropy = 0.65\nsamples = 6\nvalue = [1, 5]"] ;
48 -> 49 ;
50 [label="Age <= 1.5\nentropy = 0.918\nsamples = 3\nvalue = [1, 2]"] ;
49 -> 50 ;
51 [label="entropy = 0.0\nsamples = 1\nvalue = [0, 1]"] ;
50 -> 51 ;
52 [label="entropy = 1.0\nsamples = 2\nvalue = [1, 1]"] ;
50 -> 52 ;
53 [label="entropy = 0.0\nsamples = 3\nvalue = [0, 3]"] ;
49 -> 53 ;
54 [label="entropy = 0.0\nsamples = 5\nvalue = [0, 5]"] ;
48 -> 54 ;
55 [label="Age <= 11.5\nentropy = 0.988\nsamples = 103\nvalue = [45, 58]"] ;
47 -> 55 ;
56 [label="entropy = 0.0\nsamples = 3\nvalue = [3, 0]"] ;
55 -> 56 ;
57 [label="Age <= 16.5\nentropy = 0.981\nsamples = 100\nvalue = [42, 58]"] ;
55 -> 57 ;
58 [label="Age <= 14.75\nentropy = 0.764\nsamples = 9\nvalue = [2, 7]"] ;
57 -> 58 ;
59 [label="Age <= 13.5\nentropy = 1.0\nsamples = 4\nvalue = [2, 2]"] ;
58 -> 59 ;
60 [label="entropy = 0.0\nsamples = 1\nvalue = [0, 1]"] ;
59 -> 60 ;
61 [label="Age <= 14.25\nentropy = 0.918\nsamples = 3\nvalue = [2, 1]"] ;
59 -> 61 ;
62 [label="SibSp <= 0.5\nentropy = 1.0\nsamples = 2\nvalue = [1, 1]"] ;
61 -> 62 ;
63 [label="entropy = 0.0\nsamples = 1\nvalue = [1, 0]"] ;
62 -> 63 ;
64 [label="entropy = 0.0\nsamples = 1\nvalue = [0, 1]"] ;
62 -> 64 ;
65 [label="entropy = 0.0\nsamples = 1\nvalue = [1, 0]"] ;
61 -> 65 ;
66 [label="entropy = 0.0\nsamples = 5\nvalue = [0, 5]"] ;
58 -> 66 ;
67 [label="Age <= 21.5\nentropy = 0.989\nsamples = 91\nvalue = [40, 51]"] ;
57 -> 67 ;
68 [label="SibSp <= 1.5\nentropy = 0.937\nsamples = 17\nvalue = [11, 6]"] ;
67 -> 68 ;
69 [label="Age <= 19.5\nentropy = 0.971\nsamples = 15\nvalue = [9, 6]"] ;
68 -> 69 ;
70 [label="Age <= 18.5\nentropy = 1.0\nsamples = 10\nvalue = [5, 5]"] ;
69 -> 70 ;
71 [label="SibSp <= 0.5\nentropy = 0.954\nsamples = 8\nvalue = [5, 3]"] ;
70 -> 71 ;
72 [label="Age <= 17.5\nentropy = 0.985\nsamples = 7\nvalue = [4, 3]"] ;
71 -> 72 ;
73 [label="entropy = 0.0\nsamples = 1\nvalue = [1, 0]"] ;
72 -> 73 ;
74 [label="Parch <= 0.5\nentropy = 1.0\nsamples = 6\nvalue = [3, 3]"] ;
72 -> 74 ;
75 [label="entropy = 1.0\nsamples = 4\nvalue = [2, 2]"] ;
74 -> 75 ;
76 [label="entropy = 1.0\nsamples = 2\nvalue = [1, 1]"] ;
74 -> 76 ;
77 [label="entropy = 0.0\nsamples = 1\nvalue = [1, 0]"] ;
71 -> 77 ;
78 [label="entropy = 0.0\nsamples = 2\nvalue = [0, 2]"] ;
70 -> 78 ;
79 [label="SibSp <= 0.5\nentropy = 0.722\nsamples = 5\nvalue = [4, 1]"] ;
69 -> 79 ;
80 [label="Age <= 20.5\nentropy = 0.918\nsamples = 3\nvalue = [2, 1]"] ;
79 -> 80 ;
81 [label="entropy = 0.0\nsamples = 1\nvalue = [1, 0]"] ;
80 -> 81 ;
82 [label="entropy = 1.0\nsamples = 2\nvalue = [1, 1]"] ;
80 -> 82 ;
83 [label="entropy = 0.0\nsamples = 2\nvalue = [2, 0]"] ;
79 -> 83 ;
84 [label="entropy = 0.0\nsamples = 2\nvalue = [2, 0]"] ;
68 -> 84 ;
85 [label="Age <= 29.85\nentropy = 0.966\nsamples = 74\nvalue = [29, 45]"] ;
67 -> 85 ;
86 [label="Parch <= 3.5\nentropy = 0.943\nsamples = 61\nvalue = [22, 39]"] ;
85 -> 86 ;
87 [label="Parch <= 2.5\nentropy = 0.934\nsamples = 60\nvalue = [21, 39]"] ;
86 -> 87 ;
88 [label="Age <= 29.35\nentropy = 0.939\nsamples = 59\nvalue = [21, 38]"] ;
87 -> 88 ;
89 [label="Parch <= 1.5\nentropy = 0.988\nsamples = 23\nvalue = [10, 13]"] ;
88 -> 89 ;
90 [label="Age <= 27.5\nentropy = 1.0\nsamples = 20\nvalue = [10, 10]"] ;
89 -> 90 ;
91 [label="Age <= 26.5\nentropy = 0.977\nsamples = 17\nvalue = [7, 10]"] ;
90 -> 91 ;
92 [label="Age <= 22.5\nentropy = 0.997\nsamples = 15\nvalue = [7, 8]"] ;
91 -> 92 ;
93 [label="entropy = 0.918\nsamples = 6\nvalue = [2, 4]"] ;
92 -> 93 ;
94 [label="Age <= 25.5\nentropy = 0.991\nsamples = 9\nvalue = [5, 4]"] ;
92 -> 94 ;
95 [label="Age <= 24.5\nentropy = 0.918\nsamples = 6\nvalue = [4, 2]"] ;
94 -> 95 ;
96 [label="SibSp <= 0.5\nentropy = 1.0\nsamples = 4\nvalue = [2, 2]"] ;
95 -> 96 ;
97 [label="Age <= 23.5\nentropy = 0.918\nsamples = 3\nvalue = [2, 1]"] ;
96 -> 97 ;
98 [label="entropy = 1.0\nsamples = 2\nvalue = [1, 1]"] ;
97 -> 98 ;
99 [label="entropy = 0.0\nsamples = 1\nvalue = [1, 0]"] ;
97 -> 99 ;
100 [label="entropy = 0.0\nsamples = 1\nvalue = [0, 1]"] ;
96 -> 100 ;
101 [label="entropy = 0.0\nsamples = 2\nvalue = [2, 0]"] ;
95 -> 101 ;
102 [label="SibSp <= 0.5\nentropy = 0.918\nsamples = 3\nvalue = [1, 2]"] ;
94 -> 102 ;
103 [label="entropy = 0.0\nsamples = 2\nvalue = [0, 2]"] ;
102 -> 103 ;
104 [label="entropy = 0.0\nsamples = 1\nvalue = [1, 0]"] ;
102 -> 104 ;
105 [label="entropy = 0.0\nsamples = 2\nvalue = [0, 2]"] ;
91 -> 105 ;
106 [label="entropy = 0.0\nsamples = 3\nvalue = [3, 0]"] ;
90 -> 106 ;
107 [label="entropy = 0.0\nsamples = 3\nvalue = [0, 3]"] ;
89 -> 107 ;
108 [label="Parch <= 1.5\nentropy = 0.888\nsamples = 36\nvalue = [11, 25]"] ;
88 -> 108 ;
109 [label="SibSp <= 1.5\nentropy = 0.811\nsamples = 32\nvalue = [8, 24]"] ;
108 -> 109 ;
110 [label="Parch <= 0.5\nentropy = 0.824\nsamples = 31\nvalue = [8, 23]"] ;
109 -> 110 ;
111 [label="SibSp <= 0.5\nentropy = 0.837\nsamples = 30\nvalue = [8, 22]"] ;
110 -> 111 ;
112 [label="entropy = 0.845\nsamples = 22\nvalue = [6, 16]"] ;
111 -> 112 ;
113 [label="entropy = 0.811\nsamples = 8\nvalue = [2, 6]"] ;
111 -> 113 ;
114 [label="entropy = 0.0\nsamples = 1\nvalue = [0, 1]"] ;
110 -> 114 ;
115 [label="entropy = 0.0\nsamples = 1\nvalue = [0, 1]"] ;
109 -> 115 ;
116 [label="SibSp <= 0.5\nentropy = 0.811\nsamples = 4\nvalue = [3, 1]"] ;
108 -> 116 ;
117 [label="entropy = 0.918\nsamples = 3\nvalue = [2, 1]"] ;
116 -> 117 ;
118 [label="entropy = 0.0\nsamples = 1\nvalue = [1, 0]"] ;
116 -> 118 ;
119 [label="entropy = 0.0\nsamples = 1\nvalue = [0, 1]"] ;
87 -> 119 ;
120 [label="entropy = 0.0\nsamples = 1\nvalue = [1, 0]"] ;
86 -> 120 ;
121 [label="Age <= 33.5\nentropy = 0.996\nsamples = 13\nvalue = [7, 6]"] ;
85 -> 121 ;
122 [label="Age <= 31.5\nentropy = 0.918\nsamples = 9\nvalue = [6, 3]"] ;
121 -> 122 ;
123 [label="Age <= 30.75\nentropy = 0.954\nsamples = 8\nvalue = [5, 3]"] ;
122 -> 123 ;
124 [label="Parch <= 0.5\nentropy = 0.811\nsamples = 4\nvalue = [3, 1]"] ;
123 -> 124 ;
125 [label="Age <= 30.25\nentropy = 0.918\nsamples = 3\nvalue = [2, 1]"] ;
124 -> 125 ;
126 [label="entropy = 1.0\nsamples = 2\nvalue = [1, 1]"] ;
125 -> 126 ;
127 [label="entropy = 0.0\nsamples = 1\nvalue = [1, 0]"] ;
125 -> 127 ;
128 [label="entropy = 0.0\nsamples = 1\nvalue = [1, 0]"] ;
124 -> 128 ;
129 [label="Parch <= 0.5\nentropy = 1.0\nsamples = 4\nvalue = [2, 2]"] ;
123 -> 129 ;
130 [label="SibSp <= 0.5\nentropy = 0.918\nsamples = 3\nvalue = [2, 1]"] ;
129 -> 130 ;
131 [label="entropy = 1.0\nsamples = 2\nvalue = [1, 1]"] ;
130 -> 131 ;
132 [label="entropy = 0.0\nsamples = 1\nvalue = [1, 0]"] ;
130 -> 132 ;
133 [label="entropy = 0.0\nsamples = 1\nvalue = [0, 1]"] ;
129 -> 133 ;
134 [label="entropy = 0.0\nsamples = 1\nvalue = [1, 0]"] ;
122 -> 134 ;
135 [label="SibSp <= 0.5\nentropy = 0.811\nsamples = 4\nvalue = [1, 3]"] ;
121 -> 135 ;
136 [label="entropy = 0.0\nsamples = 1\nvalue = [1, 0]"] ;
135 -> 136 ;
137 [label="entropy = 0.0\nsamples = 3\nvalue = [0, 3]"] ;
135 -> 137 ;
138 [label="Parch <= 0.5\nentropy = 0.65\nsamples = 18\nvalue = [15, 3]"] ;
46 -> 138 ;
139 [label="entropy = 0.0\nsamples = 1\nvalue = [0, 1]"] ;
138 -> 139 ;
140 [label="SibSp <= 3.5\nentropy = 0.523\nsamples = 17\nvalue = [15, 2]"] ;
138 -> 140 ;
141 [label="entropy = 0.0\nsamples = 7\nvalue = [7, 0]"] ;
140 -> 141 ;
142 [label="SibSp <= 4.5\nentropy = 0.722\nsamples = 10\nvalue = [8, 2]"] ;
140 -> 142 ;
143 [label="Age <= 14.0\nentropy = 0.918\nsamples = 6\nvalue = [4, 2]"] ;
142 -> 143 ;
144 [label="Age <= 5.5\nentropy = 0.722\nsamples = 5\nvalue = [4, 1]"] ;
143 -> 144 ;
145 [label="Age <= 3.5\nentropy = 1.0\nsamples = 2\nvalue = [1, 1]"] ;
144 -> 145 ;
146 [label="entropy = 0.0\nsamples = 1\nvalue = [1, 0]"] ;
145 -> 146 ;
147 [label="entropy = 0.0\nsamples = 1\nvalue = [0, 1]"] ;
145 -> 147 ;
148 [label="entropy = 0.0\nsamples = 3\nvalue = [3, 0]"] ;
144 -> 148 ;
149 [label="entropy = 0.0\nsamples = 1\nvalue = [0, 1]"] ;
143 -> 149 ;
150 [label="entropy = 0.0\nsamples = 4\nvalue = [4, 0]"] ;
142 -> 150 ;
151 [label="Age <= 55.5\nentropy = 0.414\nsamples = 12\nvalue = [11, 1]"] ;
45 -> 151 ;
152 [label="entropy = 0.0\nsamples = 11\nvalue = [11, 0]"] ;
151 -> 152 ;
153 [label="entropy = 0.0\nsamples = 1\nvalue = [0, 1]"] ;
151 -> 153 ;
154 [label="Pclass <= 1.5\nentropy = 0.699\nsamples = 577\nvalue = [468, 109]"] ;
0 -> 154 [labeldistance=2.5, labelangle=-45, headlabel="False"] ;
155 [label="Age <= 17.5\nentropy = 0.95\nsamples = 122\nvalue = [77, 45]"] ;
154 -> 155 ;
156 [label="entropy = 0.0\nsamples = 4\nvalue = [0, 4]"] ;
155 -> 156 ;
157 [label="Age <= 53.0\nentropy = 0.932\nsamples = 118\nvalue = [77, 41]"] ;
155 -> 157 ;
158 [label="Age <= 22.5\nentropy = 0.968\nsamples = 96\nvalue = [58, 38]"] ;
157 -> 158 ;
159 [label="entropy = 0.0\nsamples = 5\nvalue = [5, 0]"] ;
158 -> 159 ;
160 [label="Age <= 27.5\nentropy = 0.98\nsamples = 91\nvalue = [53, 38]"] ;
158 -> 160 ;
161 [label="Parch <= 1.5\nentropy = 0.881\nsamples = 10\nvalue = [3, 7]"] ;
160 -> 161 ;
162 [label="Age <= 24.5\nentropy = 0.764\nsamples = 9\nvalue = [2, 7]"] ;
161 -> 162 ;
163 [label="Age <= 23.5\nentropy = 0.918\nsamples = 3\nvalue = [2, 1]"] ;
162 -> 163 ;
164 [label="entropy = 0.0\nsamples = 1\nvalue = [0, 1]"] ;
163 -> 164 ;
165 [label="entropy = 0.0\nsamples = 2\nvalue = [2, 0]"] ;
163 -> 165 ;
166 [label="entropy = 0.0\nsamples = 6\nvalue = [0, 6]"] ;
162 -> 166 ;
167 [label="entropy = 0.0\nsamples = 1\nvalue = [1, 0]"] ;
161 -> 167 ;
168 [label="Age <= 47.5\nentropy = 0.96\nsamples = 81\nvalue = [50, 31]"] ;
160 -> 168 ;
169 [label="Age <= 45.25\nentropy = 0.923\nsamples = 68\nvalue = [45, 23]"] ;
168 -> 169 ;
170 [label="Age <= 31.5\nentropy = 0.956\nsamples = 61\nvalue = [38, 23]"] ;
169 -> 170 ;
171 [label="Age <= 28.5\nentropy = 0.824\nsamples = 31\nvalue = [23, 8]"] ;
170 -> 171 ;
172 [label="SibSp <= 0.5\nentropy = 1.0\nsamples = 4\nvalue = [2, 2]"] ;
171 -> 172 ;
173 [label="entropy = 0.918\nsamples = 3\nvalue = [1, 2]"] ;
172 -> 173 ;
174 [label="entropy = 0.0\nsamples = 1\nvalue = [1, 0]"] ;
172 -> 174 ;
175 [label="Age <= 29.35\nentropy = 0.764\nsamples = 27\nvalue = [21, 6]"] ;
171 -> 175 ;
176 [label="entropy = 0.0\nsamples = 2\nvalue = [2, 0]"] ;
175 -> 176 ;
177 [label="SibSp <= 0.5\nentropy = 0.795\nsamples = 25\nvalue = [19, 6]"] ;
175 -> 177 ;
178 [label="Age <= 29.85\nentropy = 0.755\nsamples = 23\nvalue = [18, 5]"] ;
177 -> 178 ;
179 [label="entropy = 0.792\nsamples = 21\nvalue = [16, 5]"] ;
178 -> 179 ;
180 [label="entropy = 0.0\nsamples = 2\nvalue = [2, 0]"] ;
178 -> 180 ;
181 [label="entropy = 1.0\nsamples = 2\nvalue = [1, 1]"] ;
177 -> 181 ;
182 [label="Age <= 36.5\nentropy = 1.0\nsamples = 30\nvalue = [15, 15]"] ;
170 -> 182 ;
183 [label="Parch <= 0.5\nentropy = 0.811\nsamples = 12\nvalue = [3, 9]"] ;
182 -> 183 ;
184 [label="SibSp <= 0.5\nentropy = 0.881\nsamples = 10\nvalue = [3, 7]"] ;
183 -> 184 ;
185 [label="Age <= 33.5\nentropy = 0.764\nsamples = 9\nvalue = [2, 7]"] ;
184 -> 185 ;
186 [label="Age <= 32.5\nentropy = 1.0\nsamples = 2\nvalue = [1, 1]"] ;
185 -> 186 ;
187 [label="entropy = 0.0\nsamples = 1\nvalue = [0, 1]"] ;
186 -> 187 ;
188 [label="entropy = 0.0\nsamples = 1\nvalue = [1, 0]"] ;
186 -> 188 ;
189 [label="Age <= 35.5\nentropy = 0.592\nsamples = 7\nvalue = [1, 6]"] ;
185 -> 189 ;
190 [label="entropy = 0.0\nsamples = 4\nvalue = [0, 4]"] ;
189 -> 190 ;
191 [label="entropy = 0.918\nsamples = 3\nvalue = [1, 2]"] ;
189 -> 191 ;
192 [label="entropy = 0.0\nsamples = 1\nvalue = [1, 0]"] ;
184 -> 192 ;
193 [label="entropy = 0.0\nsamples = 2\nvalue = [0, 2]"] ;
183 -> 193 ;
194 [label="SibSp <= 1.5\nentropy = 0.918\nsamples = 18\nvalue = [12, 6]"] ;
182 -> 194 ;
195 [label="SibSp <= 0.5\nentropy = 0.937\nsamples = 17\nvalue = [11, 6]"] ;
194 -> 195 ;
196 [label="Age <= 39.5\nentropy = 0.845\nsamples = 11\nvalue = [8, 3]"] ;
195 -> 196 ;
197 [label="entropy = 0.0\nsamples = 4\nvalue = [4, 0]"] ;
196 -> 197 ;
198 [label="Age <= 41.0\nentropy = 0.985\nsamples = 7\nvalue = [4, 3]"] ;
196 -> 198 ;
199 [label="entropy = 0.918\nsamples = 3\nvalue = [2, 1]"] ;
198 -> 199 ;
200 [label="Age <= 43.5\nentropy = 1.0\nsamples = 4\nvalue = [2, 2]"] ;
198 -> 200 ;
201 [label="entropy = 0.0\nsamples = 1\nvalue = [0, 1]"] ;
200 -> 201 ;
202 [label="entropy = 0.918\nsamples = 3\nvalue = [2, 1]"] ;
200 -> 202 ;
203 [label="Parch <= 0.5\nentropy = 1.0\nsamples = 6\nvalue = [3, 3]"] ;
195 -> 203 ;
204 [label="Age <= 37.5\nentropy = 0.971\nsamples = 5\nvalue = [3, 2]"] ;
203 -> 204 ;
205 [label="entropy = 0.0\nsamples = 1\nvalue = [1, 0]"] ;
204 -> 205 ;
206 [label="Age <= 40.0\nentropy = 1.0\nsamples = 4\nvalue = [2, 2]"] ;
204 -> 206 ;
207 [label="entropy = 0.0\nsamples = 1\nvalue = [0, 1]"] ;
206 -> 207 ;
208 [label="Age <= 43.5\nentropy = 0.918\nsamples = 3\nvalue = [2, 1]"] ;
206 -> 208 ;
209 [label="entropy = 1.0\nsamples = 2\nvalue = [1, 1]"] ;
208 -> 209 ;
210 [label="entropy = 0.0\nsamples = 1\nvalue = [1, 0]"] ;
208 -> 210 ;
211 [label="entropy = 0.0\nsamples = 1\nvalue = [0, 1]"] ;
203 -> 211 ;
212 [label="entropy = 0.0\nsamples = 1\nvalue = [1, 0]"] ;
194 -> 212 ;
213 [label="entropy = 0.0\nsamples = 7\nvalue = [7, 0]"] ;
169 -> 213 ;
214 [label="Parch <= 0.5\nentropy = 0.961\nsamples = 13\nvalue = [5, 8]"] ;
168 -> 214 ;
215 [label="Age <= 49.5\nentropy = 0.722\nsamples = 10\nvalue = [2, 8]"] ;
214 -> 215 ;
216 [label="entropy = 0.0\nsamples = 5\nvalue = [0, 5]"] ;
215 -> 216 ;
217 [label="Age <= 50.5\nentropy = 0.971\nsamples = 5\nvalue = [2, 3]"] ;
215 -> 217 ;
218 [label="SibSp <= 1.5\nentropy = 0.918\nsamples = 3\nvalue = [2, 1]"] ;
217 -> 218 ;
219 [label="entropy = 0.0\nsamples = 2\nvalue = [2, 0]"] ;
218 -> 219 ;
220 [label="entropy = 0.0\nsamples = 1\nvalue = [0, 1]"] ;
218 -> 220 ;
221 [label="entropy = 0.0\nsamples = 2\nvalue = [0, 2]"] ;
217 -> 221 ;
222 [label="entropy = 0.0\nsamples = 3\nvalue = [3, 0]"] ;
214 -> 222 ;
223 [label="Age <= 75.5\nentropy = 0.575\nsamples = 22\nvalue = [19, 3]"] ;
157 -> 223 ;
224 [label="Age <= 60.5\nentropy = 0.454\nsamples = 21\nvalue = [19, 2]"] ;
223 -> 224 ;
225 [label="SibSp <= 0.5\nentropy = 0.722\nsamples = 10\nvalue = [8, 2]"] ;
224 -> 225 ;
226 [label="Age <= 55.5\nentropy = 0.503\nsamples = 9\nvalue = [8, 1]"] ;
225 -> 226 ;
227 [label="entropy = 0.0\nsamples = 3\nvalue = [3, 0]"] ;
226 -> 227 ;
228 [label="Age <= 57.0\nentropy = 0.65\nsamples = 6\nvalue = [5, 1]"] ;
226 -> 228 ;
229 [label="entropy = 0.918\nsamples = 3\nvalue = [2, 1]"] ;
228 -> 229 ;
230 [label="entropy = 0.0\nsamples = 3\nvalue = [3, 0]"] ;
228 -> 230 ;
231 [label="entropy = 0.0\nsamples = 1\nvalue = [0, 1]"] ;
225 -> 231 ;
232 [label="entropy = 0.0\nsamples = 11\nvalue = [11, 0]"] ;
224 -> 232 ;
233 [label="entropy = 0.0\nsamples = 1\nvalue = [0, 1]"] ;
223 -> 233 ;
234 [label="Age <= 9.5\nentropy = 0.586\nsamples = 455\nvalue = [391, 64]"] ;
154 -> 234 ;
235 [label="SibSp <= 2.5\nentropy = 0.987\nsamples = 30\nvalue = [13, 17]"] ;
234 -> 235 ;
236 [label="entropy = 0.0\nsamples = 16\nvalue = [0, 16]"] ;
235 -> 236 ;
237 [label="Age <= 3.5\nentropy = 0.371\nsamples = 14\nvalue = [13, 1]"] ;
235 -> 237 ;
238 [label="Age <= 2.5\nentropy = 0.65\nsamples = 6\nvalue = [5, 1]"] ;
237 -> 238 ;
239 [label="entropy = 0.0\nsamples = 5\nvalue = [5, 0]"] ;
238 -> 239 ;
240 [label="entropy = 0.0\nsamples = 1\nvalue = [0, 1]"] ;
238 -> 240 ;
241 [label="entropy = 0.0\nsamples = 8\nvalue = [8, 0]"] ;
237 -> 241 ;
242 [label="Age <= 32.25\nentropy = 0.502\nsamples = 425\nvalue = [378, 47]"] ;
234 -> 242 ;
243 [label="Age <= 30.75\nentropy = 0.552\nsamples = 320\nvalue = [279, 41]"] ;
242 -> 243 ;
244 [label="Parch <= 1.5\nentropy = 0.501\nsamples = 299\nvalue = [266, 33]"] ;
243 -> 244 ;
245 [label="Pclass <= 2.5\nentropy = 0.514\nsamples = 288\nvalue = [255, 33]"] ;
244 -> 245 ;
246 [label="Age <= 29.35\nentropy = 0.323\nsamples = 51\nvalue = [48, 3]"] ;
245 -> 246 ;
247 [label="Age <= 20.0\nentropy = 0.179\nsamples = 37\nvalue = [36, 1]"] ;
246 -> 247 ;
248 [label="Age <= 18.5\nentropy = 0.469\nsamples = 10\nvalue = [9, 1]"] ;
247 -> 248 ;
249 [label="entropy = 0.0\nsamples = 6\nvalue = [6, 0]"] ;
248 -> 249 ;
250 [label="SibSp <= 0.5\nentropy = 0.811\nsamples = 4\nvalue = [3, 1]"] ;
248 -> 250 ;
251 [label="entropy = 0.918\nsamples = 3\nvalue = [2, 1]"] ;
250 -> 251 ;
252 [label="entropy = 0.0\nsamples = 1\nvalue = [1, 0]"] ;
250 -> 252 ;
253 [label="entropy = 0.0\nsamples = 27\nvalue = [27, 0]"] ;
247 -> 253 ;
254 [label="Age <= 29.85\nentropy = 0.592\nsamples = 14\nvalue = [12, 2]"] ;
246 -> 254 ;
255 [label="entropy = 0.764\nsamples = 9\nvalue = [7, 2]"] ;
254 -> 255 ;
256 [label="entropy = 0.0\nsamples = 5\nvalue = [5, 0]"] ;
254 -> 256 ;
257 [label="Parch <= 0.5\nentropy = 0.548\nsamples = 237\nvalue = [207, 30]"] ;
245 -> 257 ;
258 [label="Age <= 29.35\nentropy = 0.528\nsamples = 226\nvalue = [199, 27]"] ;
257 -> 258 ;
259 [label="Age <= 24.75\nentropy = 0.597\nsamples = 131\nvalue = [112, 19]"] ;
258 -> 259 ;
260 [label="Age <= 14.0\nentropy = 0.487\nsamples = 85\nvalue = [76, 9]"] ;
259 -> 260 ;
261 [label="Age <= 11.5\nentropy = 1.0\nsamples = 2\nvalue = [1, 1]"] ;
260 -> 261 ;
262 [label="entropy = 0.0\nsamples = 1\nvalue = [1, 0]"] ;
261 -> 262 ;
263 [label="entropy = 0.0\nsamples = 1\nvalue = [0, 1]"] ;
261 -> 263 ;
264 [label="Age <= 20.25\nentropy = 0.457\nsamples = 83\nvalue = [75, 8]"] ;
260 -> 264 ;
265 [label="SibSp <= 0.5\nentropy = 0.535\nsamples = 41\nvalue = [36, 5]"] ;
264 -> 265 ;
266 [label="Age <= 16.5\nentropy = 0.494\nsamples = 37\nvalue = [33, 4]"] ;
265 -> 266 ;
267 [label="entropy = 0.722\nsamples = 5\nvalue = [4, 1]"] ;
266 -> 267 ;
268 [label="Age <= 17.5\nentropy = 0.449\nsamples = 32\nvalue = [29, 3]"] ;
266 -> 268 ;
269 [label="entropy = 0.0\nsamples = 4\nvalue = [4, 0]"] ;
268 -> 269 ;
270 [label="Age <= 18.5\nentropy = 0.491\nsamples = 28\nvalue = [25, 3]"] ;
268 -> 270 ;
271 [label="entropy = 0.722\nsamples = 5\nvalue = [4, 1]"] ;
270 -> 271 ;
272 [label="Age <= 19.5\nentropy = 0.426\nsamples = 23\nvalue = [21, 2]"] ;
270 -> 272 ;
273 [label="entropy = 0.414\nsamples = 12\nvalue = [11, 1]"] ;
272 -> 273 ;
274 [label="entropy = 0.439\nsamples = 11\nvalue = [10, 1]"] ;
272 -> 274 ;
275 [label="Age <= 19.0\nentropy = 0.811\nsamples = 4\nvalue = [3, 1]"] ;
265 -> 275 ;
276 [label="entropy = 0.0\nsamples = 3\nvalue = [3, 0]"] ;
275 -> 276 ;
277 [label="entropy = 0.0\nsamples = 1\nvalue = [0, 1]"] ;
275 -> 277 ;
278 [label="SibSp <= 0.5\nentropy = 0.371\nsamples = 42\nvalue = [39, 3]"] ;
264 -> 278 ;
279 [label="Age <= 23.75\nentropy = 0.391\nsamples = 39\nvalue = [36, 3]"] ;
278 -> 279 ;
280 [label="Age <= 22.5\nentropy = 0.345\nsamples = 31\nvalue = [29, 2]"] ;
279 -> 280 ;
281 [label="Age <= 20.75\nentropy = 0.381\nsamples = 27\nvalue = [25, 2]"] ;
280 -> 281 ;
282 [label="entropy = 0.0\nsamples = 1\nvalue = [1, 0]"] ;
281 -> 282 ;
283 [label="Age <= 21.5\nentropy = 0.391\nsamples = 26\nvalue = [24, 2]"] ;
281 -> 283 ;
284 [label="entropy = 0.391\nsamples = 13\nvalue = [12, 1]"] ;
283 -> 284 ;
285 [label="entropy = 0.391\nsamples = 13\nvalue = [12, 1]"] ;
283 -> 285 ;
286 [label="entropy = 0.0\nsamples = 4\nvalue = [4, 0]"] ;
280 -> 286 ;
287 [label="Age <= 24.25\nentropy = 0.544\nsamples = 8\nvalue = [7, 1]"] ;
279 -> 287 ;
288 [label="entropy = 0.592\nsamples = 7\nvalue = [6, 1]"] ;
287 -> 288 ;
289 [label="entropy = 0.0\nsamples = 1\nvalue = [1, 0]"] ;
287 -> 289 ;
290 [label="entropy = 0.0\nsamples = 3\nvalue = [3, 0]"] ;
278 -> 290 ;
291 [label="Age <= 28.75\nentropy = 0.755\nsamples = 46\nvalue = [36, 10]"] ;
259 -> 291 ;
292 [label="Age <= 27.5\nentropy = 0.689\nsamples = 38\nvalue = [31, 7]"] ;
291 -> 292 ;
293 [label="Age <= 26.5\nentropy = 0.84\nsamples = 26\nvalue = [19, 7]"] ;
292 -> 293 ;
294 [label="SibSp <= 1.5\nentropy = 0.702\nsamples = 21\nvalue = [17, 4]"] ;
293 -> 294 ;
295 [label="Age <= 25.5\nentropy = 0.722\nsamples = 20\nvalue = [16, 4]"] ;
294 -> 295 ;
296 [label="SibSp <= 0.5\nentropy = 0.684\nsamples = 11\nvalue = [9, 2]"] ;
295 -> 296 ;
297 [label="entropy = 0.544\nsamples = 8\nvalue = [7, 1]"] ;
296 -> 297 ;
298 [label="entropy = 0.918\nsamples = 3\nvalue = [2, 1]"] ;
296 -> 298 ;
299 [label="SibSp <= 0.5\nentropy = 0.764\nsamples = 9\nvalue = [7, 2]"] ;
295 -> 299 ;
300 [label="entropy = 0.863\nsamples = 7\nvalue = [5, 2]"] ;
299 -> 300 ;
301 [label="entropy = 0.0\nsamples = 2\nvalue = [2, 0]"] ;
299 -> 301 ;
302 [label="entropy = 0.0\nsamples = 1\nvalue = [1, 0]"] ;
294 -> 302 ;
303 [label="SibSp <= 0.5\nentropy = 0.971\nsamples = 5\nvalue = [2, 3]"] ;
293 -> 303 ;
304 [label="entropy = 0.811\nsamples = 4\nvalue = [1, 3]"] ;
303 -> 304 ;
305 [label="entropy = 0.0\nsamples = 1\nvalue = [1, 0]"] ;
303 -> 305 ;
306 [label="entropy = 0.0\nsamples = 12\nvalue = [12, 0]"] ;
292 -> 306 ;
307 [label="SibSp <= 0.5\nentropy = 0.954\nsamples = 8\nvalue = [5, 3]"] ;
291 -> 307 ;
308 [label="entropy = 0.985\nsamples = 7\nvalue = [4, 3]"] ;
307 -> 308 ;
309 [label="entropy = 0.0\nsamples = 1\nvalue = [1, 0]"] ;
307 -> 309 ;
310 [label="SibSp <= 1.5\nentropy = 0.417\nsamples = 95\nvalue = [87, 8]"] ;
258 -> 310 ;
311 [label="SibSp <= 0.5\nentropy = 0.385\nsamples = 93\nvalue = [86, 7]"] ;
310 -> 311 ;
312 [label="Age <= 29.85\nentropy = 0.41\nsamples = 85\nvalue = [78, 7]"] ;
311 -> 312 ;
313 [label="entropy = 0.395\nsamples = 77\nvalue = [71, 6]"] ;
312 -> 313 ;
314 [label="Age <= 30.25\nentropy = 0.544\nsamples = 8\nvalue = [7, 1]"] ;
312 -> 314 ;
315 [label="entropy = 0.592\nsamples = 7\nvalue = [6, 1]"] ;
314 -> 315 ;
316 [label="entropy = 0.0\nsamples = 1\nvalue = [1, 0]"] ;
314 -> 316 ;
317 [label="entropy = 0.0\nsamples = 8\nvalue = [8, 0]"] ;
311 -> 317 ;
318 [label="entropy = 1.0\nsamples = 2\nvalue = [1, 1]"] ;
310 -> 318 ;
319 [label="Age <= 19.0\nentropy = 0.845\nsamples = 11\nvalue = [8, 3]"] ;
257 -> 319 ;
320 [label="entropy = 0.0\nsamples = 7\nvalue = [7, 0]"] ;
319 -> 320 ;
321 [label="SibSp <= 2.0\nentropy = 0.811\nsamples = 4\nvalue = [1, 3]"] ;
319 -> 321 ;
322 [label="entropy = 0.0\nsamples = 3\nvalue = [0, 3]"] ;
321 -> 322 ;
323 [label="entropy = 0.0\nsamples = 1\nvalue = [1, 0]"] ;
321 -> 323 ;
324 [label="entropy = 0.0\nsamples = 11\nvalue = [11, 0]"] ;
244 -> 324 ;
325 [label="Parch <= 0.5\nentropy = 0.959\nsamples = 21\nvalue = [13, 8]"] ;
243 -> 325 ;
326 [label="SibSp <= 1.5\nentropy = 0.982\nsamples = 19\nvalue = [11, 8]"] ;
325 -> 326 ;
327 [label="Pclass <= 2.5\nentropy = 0.991\nsamples = 18\nvalue = [10, 8]"] ;
326 -> 327 ;
328 [label="SibSp <= 0.5\nentropy = 1.0\nsamples = 4\nvalue = [2, 2]"] ;
327 -> 328 ;
329 [label="Age <= 31.5\nentropy = 0.918\nsamples = 3\nvalue = [2, 1]"] ;
328 -> 329 ;
330 [label="entropy = 1.0\nsamples = 2\nvalue = [1, 1]"] ;
329 -> 330 ;
331 [label="entropy = 0.0\nsamples = 1\nvalue = [1, 0]"] ;
329 -> 331 ;
332 [label="entropy = 0.0\nsamples = 1\nvalue = [0, 1]"] ;
328 -> 332 ;
333 [label="SibSp <= 0.5\nentropy = 0.985\nsamples = 14\nvalue = [8, 6]"] ;
327 -> 333 ;
334 [label="Age <= 31.5\nentropy = 0.996\nsamples = 13\nvalue = [7, 6]"] ;
333 -> 334 ;
335 [label="entropy = 0.918\nsamples = 3\nvalue = [2, 1]"] ;
334 -> 335 ;
336 [label="entropy = 1.0\nsamples = 10\nvalue = [5, 5]"] ;
334 -> 336 ;
337 [label="entropy = 0.0\nsamples = 1\nvalue = [1, 0]"] ;
333 -> 337 ;
338 [label="entropy = 0.0\nsamples = 1\nvalue = [1, 0]"] ;
326 -> 338 ;
339 [label="entropy = 0.0\nsamples = 2\nvalue = [2, 0]"] ;
325 -> 339 ;
340 [label="SibSp <= 0.5\nentropy = 0.316\nsamples = 105\nvalue = [99, 6]"] ;
242 -> 340 ;
341 [label="Age <= 38.5\nentropy = 0.368\nsamples = 85\nvalue = [79, 6]"] ;
340 -> 341 ;
342 [label="Pclass <= 2.5\nentropy = 0.206\nsamples = 31\nvalue = [30, 1]"] ;
341 -> 342 ;
343 [label="Age <= 34.5\nentropy = 0.469\nsamples = 10\nvalue = [9, 1]"] ;
342 -> 343 ;
344 [label="Age <= 33.5\nentropy = 0.811\nsamples = 4\nvalue = [3, 1]"] ;
343 -> 344 ;
345 [label="entropy = 0.0\nsamples = 1\nvalue = [1, 0]"] ;
344 -> 345 ;
346 [label="entropy = 0.918\nsamples = 3\nvalue = [2, 1]"] ;
344 -> 346 ;
347 [label="entropy = 0.0\nsamples = 6\nvalue = [6, 0]"] ;
343 -> 347 ;
348 [label="entropy = 0.0\nsamples = 21\nvalue = [21, 0]"] ;
342 -> 348 ;
349 [label="Age <= 45.25\nentropy = 0.445\nsamples = 54\nvalue = [49, 5]"] ;
341 -> 349 ;
350 [label="Age <= 43.5\nentropy = 0.634\nsamples = 25\nvalue = [21, 4]"] ;
349 -> 350 ;
351 [label="Pclass <= 2.5\nentropy = 0.485\nsamples = 19\nvalue = [17, 2]"] ;
350 -> 351 ;
352 [label="Age <= 40.5\nentropy = 0.722\nsamples = 5\nvalue = [4, 1]"] ;
351 -> 352 ;
353 [label="entropy = 0.0\nsamples = 3\nvalue = [3, 0]"] ;
352 -> 353 ;
354 [label="entropy = 1.0\nsamples = 2\nvalue = [1, 1]"] ;
352 -> 354 ;
355 [label="Age <= 39.5\nentropy = 0.371\nsamples = 14\nvalue = [13, 1]"] ;
351 -> 355 ;
356 [label="entropy = 0.918\nsamples = 3\nvalue = [2, 1]"] ;
355 -> 356 ;
357 [label="entropy = 0.0\nsamples = 11\nvalue = [11, 0]"] ;
355 -> 357 ;
358 [label="Parch <= 0.5\nentropy = 0.918\nsamples = 6\nvalue = [4, 2]"] ;
350 -> 358 ;
359 [label="Age <= 44.5\nentropy = 0.971\nsamples = 5\nvalue = [3, 2]"] ;
358 -> 359 ;
360 [label="entropy = 0.918\nsamples = 3\nvalue = [2, 1]"] ;
359 -> 360 ;
361 [label="entropy = 1.0\nsamples = 2\nvalue = [1, 1]"] ;
359 -> 361 ;
362 [label="entropy = 0.0\nsamples = 1\nvalue = [1, 0]"] ;
358 -> 362 ;
363 [label="Age <= 61.5\nentropy = 0.216\nsamples = 29\nvalue = [28, 1]"] ;
349 -> 363 ;
364 [label="entropy = 0.0\nsamples = 23\nvalue = [23, 0]"] ;
363 -> 364 ;
365 [label="Age <= 63.5\nentropy = 0.65\nsamples = 6\nvalue = [5, 1]"] ;
363 -> 365 ;
366 [label="entropy = 0.0\nsamples = 1\nvalue = [0, 1]"] ;
365 -> 366 ;
367 [label="entropy = 0.0\nsamples = 5\nvalue = [5, 0]"] ;
365 -> 367 ;
368 [label="entropy = 0.0\nsamples = 20\nvalue = [20, 0]"] ;
340 -> 368 ;
}